#include "network.h"
const uint32_t n_inputs = 12;
const uint32_t n_outputs = 3;
uint32_t n_per_layer [] = {16, 16, 3};
const uint32_t n_layers = 3;
float weights [] = {
	 0.45205456018447876,  0.39736264944076538,  0.00269338930957019, -0.07908856123685837, 
	 0.11685282737016678,  0.08445871621370316,  0.20732876658439636,  0.23167982697486877, 
	 0.01664957590401173,  0.36958879232406616, -0.36785259842872620, -0.16923679411411285, 
	-0.11429770290851593,  0.14045391976833344, -0.05998573824763298,  0.01531482394784689, 
	 0.10039591044187546,  0.46743795275688171,  0.07881957292556763, -0.20571719110012054, 
	 0.48500660061836243,  0.11617431044578552,  0.44027602672576904,  0.21705630421638489, 
	 0.12874028086662292, -0.13739183545112610, -0.21625275909900665,  0.10270736366510391, 
	 0.35786420106887817, -0.11448677629232407,  0.06083413958549500, -0.15596875548362732, 
	 0.33469766378402710, -0.45326122641563416,  0.18963891267776489,  0.00989171396940947, 
	 0.20046998560428619,  0.32634317874908447,  0.16852068901062012,  0.37764531373977661, 
	 0.14852571487426758, -0.31101280450820923, -0.26506167650222778,  0.16299565136432648, 
	-0.08195044845342636,  0.12727804481983185,  0.08687628060579300, -0.41292837262153625, 
	 0.33750081062316895,  0.40086916089057922,  0.03691615164279938,  0.14011208713054657, 
	-0.00287832040339708,  0.22240041196346283, -0.05716292187571526,  0.04325281828641891, 
	-0.00908846594393253,  0.53810906410217285, -0.02423202618956566, -0.25588119029998779, 
	 0.24864615499973297, -0.11864974349737167,  0.18964353203773499, -0.08004366606473923, 
	 0.26696887612342834,  0.01778320409357548, -0.10097384452819824,  0.14334155619144440, 
	 0.13074222207069397,  0.28550150990486145, -0.26173925399780273,  0.17998744547367096, 
	 0.45679512619972229, -0.01423668768256903,  0.33385258913040161, -0.16522084176540375, 
	 0.08049927651882172,  0.13980914652347565, -0.26191189885139465,  0.16363522410392761, 
	-0.04852660372853279,  0.18780018389225006, -0.25513517856597900, -0.13015538454055786, 
	-0.08039780706167221,  0.43187430500984192, -0.00578657398000360,  0.05135022848844528, 
	-0.20316319167613983,  0.19559212028980255, -0.14834551513195038,  0.39544612169265747, 
	 0.08946303278207779, -0.07940243929624557, -0.05850381776690483, -0.31660649180412292, 
	-0.08563685417175293, -0.07396249473094940,  0.13028101623058319,  0.30146363377571106, 
	 0.23414950072765350,  0.20153923332691193, -0.00392228318378329,  0.33305209875106812, 
	 0.05863748863339424, -0.14756381511688232,  0.36158555746078491,  0.35208258032798767, 
	 0.50704956054687500,  0.18826200067996979,  0.34106546640396118, -0.27453535795211792, 
	 0.12980315089225769, -0.06198394671082497,  0.53836041688919067,  0.03049781359732151, 
	-0.05298830568790436,  0.00490849977359176,  0.23240762948989868, -0.03540636971592903, 
	 0.16118822991847992,  0.00396189419552684, -0.20581400394439697,  0.11752174794673920, 
	 0.24510246515274048, -0.13643805682659149, -0.49004709720611572, -0.02116843499243259, 
	 0.25819116830825806,  0.27641513943672180, -0.15253771841526031, -0.16471330821514130, 
	-0.34805473685264587,  0.15802092850208282,  0.07619161158800125,  0.29757615923881531, 
	 0.19269362092018127, -0.23261581361293793, -0.29033219814300537,  0.14349496364593506, 
	-0.00274136359803379, -0.12602996826171875, -0.11943310499191284, -0.04328284040093422, 
	 0.57114171981811523,  0.03193897753953934,  0.30965712666511536, -0.15538097918033600, 
	 0.29186731576919556,  0.11278720945119858, -0.12537294626235962,  0.03575202450156212, 
	 0.06929032504558563,  0.12586614489555359, -0.32308095693588257, -0.08423638343811035, 
	-0.07279003411531448,  0.23538087308406830, -0.01288747414946556,  0.30755823850631714, 
	 0.21958863735198975,  0.18497361242771149, -0.31973987817764282,  0.09011251479387283, 
	 0.19423860311508179,  0.26970723271369934, -0.10354253649711609, -0.40162727236747742, 
	 0.00153894256800413, -0.03860709071159363, -0.09511773288249969,  0.23288053274154663, 
	-0.10222351551055908, -0.03769256919622421,  0.25009253621101379,  0.30616328120231628, 
	-0.21616202592849731,  0.00240371213294566,  0.21371451020240784, -0.02373495697975159, 
	-0.21618269383907318, -0.02740044333040714,  0.26704823970794678, -0.02053405717015266, 
	-0.12394960969686508, -0.03157105669379234,  0.13637697696685791,  0.24068517982959747, 
	 0.09753397107124329, -0.32110673189163208,  0.33468890190124512,  0.21671067178249359, 
	 0.10007199645042419,  0.13741442561149597, -0.38648796081542969, -0.19785681366920471, 
	 0.25675725936889648,  0.18686780333518982,  0.11457753926515579,  0.05850022658705711, 
	-0.08659568428993225,  0.21267491579055786, -0.32695186138153076, -0.44564503431320190, 
	 0.17002889513969421, -0.42734450101852417,  0.10398444533348083, -0.05387598648667336, 
	 0.08463591337203979,  0.26051500439643860, -0.12416177242994308, -0.20072211325168610, 
	-0.24490900337696075,  0.22026035189628601, -0.09586122632026672,  0.05262502282857895, 
	 0.34240883588790894,  0.10496815294027328, -0.34209144115447998, -0.28162866830825806, 
	 0.21798102557659149,  0.03924960643053055, -0.08971383422613144,  0.23275010287761688, 
	-0.51911163330078125,  0.20259338617324829,  0.22159229218959808,  0.09034409373998642, 
	-0.46864727139472961, -0.29934015870094299, -0.02891548536717892,  0.35289332270622253, 
	 0.27953141927719116,  0.01952315680682659, -0.00692988513037562,  0.16635517776012421, 
	-0.10265435278415680, -0.13680435717105865,  0.24669106304645538,  0.05772972479462624, 
	 0.06031353771686554,  0.28630873560905457, -0.27751040458679199, -0.02210354246199131, 
	 0.17686121165752411,  0.10586070269346237,  0.20438745617866516, -0.21185302734375000, 
	 0.10768251866102219,  0.33082339167594910, -0.46447435021400452, -0.58293330669403076, 
	 0.28658351302146912, -0.30499401688575745, -0.18629656732082367, -0.23250257968902588, 
	 0.14211669564247131, -0.19586654007434845, -0.09905757755041122,  0.31719160079956055, 
	 0.39736247062683105,  0.30649054050445557,  0.15098333358764648,  0.16805149614810944, 
	-0.20741690695285797, -0.18788568675518036,  0.18826290965080261,  0.14857356250286102, 
	 0.14909607172012329,  0.39229083061218262, -0.29322084784507751, -0.16584175825119019, 
	 0.26445174217224121, -0.16994965076446533, -0.12473671138286591, -0.09419962763786316, 
	 0.46782732009887695,  0.31886792182922363,  0.37228778004646301,  0.06019214540719986, 
	 0.05464196205139160,  0.32475298643112183, -0.06346951425075531,  0.05750448629260063, 
	 0.18074817955493927,  0.09507855772972107,  0.05081630870699883, -0.36993202567100525, 
	-0.13478884100914001,  0.39947357773780823, -0.32653075456619263, -0.04957063868641853, 
	-0.02449478209018707,  0.25400498509407043,  0.09149809181690216, -0.08117451518774033, 
	 0.06490938365459442,  0.09133037924766541, -0.16114044189453125, -0.18023733794689178, 
	-0.11642736941576004, -0.29598751664161682,  0.02302217110991478,  0.38113969564437866, 
	-0.22433605790138245, -0.06703498214483261,  0.09690079838037491,  0.39330378174781799, 
	-0.02844036370515823, -0.14370465278625488,  0.08223760128021240,  0.39211151003837585, 
	 0.09452500194311142, -0.22891987860202789,  0.53189867734909058,  0.53006523847579956, 
	-0.16985590755939484,  0.19082249701023102,  0.13175016641616821, -0.00712363608181477, 
	 0.08720099925994873, -0.10212696343660355,  0.34992691874504089,  0.37340489029884338, 
	 0.13455416262149811,  0.07908672094345093,  0.07626898586750031,  0.18629397451877594, 
	-0.08831580728292465, -0.20739290118217468,  0.30304884910583496,  0.27942177653312683, 
	 0.06829269230365753,  0.15493720769882202,  0.08226404339075089,  0.02194504812359810, 
	-0.13896639645099640,  0.37076860666275024,  0.07474990189075470, -0.08172272890806198, 
	-0.11470074206590652, -0.11750533431768417, -0.23058508336544037,  0.02794757671654224, 
	 0.45589610934257507, -0.28059321641921997, -0.12699435651302338,  0.05166414380073547, 
	-0.08570291846990585,  0.15094281733036041,  0.18752014636993408,  0.30912536382675171, 
	-0.00741364667192101,  0.32403287291526794, -0.28797262907028198, -0.07985857874155045, 
	-0.05560023337602615,  0.33109530806541443,  0.20995026826858521, -0.13521216809749603, 
	-0.20072755217552185,  0.27467814087867737, -0.56075972318649292, -0.60602170228958130, 
	 0.36893600225448608, -0.22608348727226257,  0.08100494742393494,  0.17878994345664978, 
	 0.40033030509948730, -0.03027678653597832, -0.33134305477142334,  0.09509368985891342, 
	 0.43499043583869934,  0.13068827986717224,  0.30132713913917542,  0.14259403944015503, 
	 0.03738618642091751,  0.17443896830081940, -0.04346489161252975, -0.34978407621383667, 
	 0.54019838571548462,  0.20010192692279816, -0.19761778414249420, -0.26814791560173035, 
	 0.05847497284412384,  0.18677371740341187, -0.05499338731169701, -0.11019205302000046, 
	 0.07645130902528763,  0.00379549222998321,  0.18269325792789459, -0.12982757389545441, 
	 0.18282513320446014, -0.02113332040607929,  0.06263192743062973,  0.12100562453269958, 
	 0.11107263714075089, -0.21947573125362396, -0.23606708645820618,  0.14793081581592560, 
	-0.40483921766281128,  0.29562881588935852,  0.31366747617721558,  0.18931747972965240, 
	 0.02274546399712563, -0.24707812070846558, -0.20545347034931183,  0.33567282557487488, 
	 0.27414563298225403, -0.41632762551307678, -0.00077172147575766,  0.22587653994560242, 
	-0.43359872698783875,  0.14077600836753845,  0.32117444276809692,  0.16938219964504242, 
	-0.27039504051208496,  0.23407396674156189,  0.05834481120109558, -0.31152385473251343, 
	-0.35928925871849060, -0.24703641235828400, -0.26397773623466492,  0.22095520794391632, 
	 0.26871913671493530,  0.15358909964561462, -0.08544301986694336,  0.26857993006706238, 
	 0.05192037671804428, -0.09287824481725693,  0.23789510130882263,  0.41567620635032654, 
	 0.11396986991167068, -0.31564849615097046, -0.10005309432744980,  0.38885524868965149, 
	 0.04010098055005074,  0.05474318191409111,  0.12603665888309479,  0.19753941893577576, 
	-0.18160668015480042, -0.21568489074707031,  0.15216666460037231,  0.14408573508262634, 
	 0.31539788842201233,  0.27876758575439453,  0.00180664146319032, -0.36360329389572144, 
	 0.18398983776569366,  0.35485142469406128, -0.27505758404731750,  0.39776211977005005, 
	-0.23573532700538635,  0.17986783385276794,  0.25182670354843140, -0.26927250623703003, 
	-0.54564046859741211, -0.15442676842212677,  0.23105712234973907,  0.28235331177711487, 
	 0.11144937574863434, -0.31799045205116272,  0.11930348724126816, -0.29217520356178284, 
	-0.19734601676464081,  0.20317220687866211,  0.32305684685707092, -0.42632907629013062, 
	-0.31755924224853516, -0.25434845685958862,  0.15677624940872192,  0.33755299448966980, 
	-0.21132616698741913,  0.15870873630046844, -0.23922193050384521, -0.41041889786720276, 
	 0.12997460365295410,  0.42686384916305542,  0.40945386886596680, -0.06462080776691437, 
	-0.10688032209873199, -0.37082958221435547, -0.33153560757637024, -0.18803513050079346, 
	 0.41816323995590210,  0.26056757569313049, -0.28772473335266113,  0.22713442146778107, 
	 0.12801329791545868, -0.43760159611701965, -0.38385364413261414,  0.33772093057632446, 
	 0.09119708836078644, -0.10573440045118332, -0.18418531119823456,  0.39306333661079407};
const uint32_t n_weights = 496;
float biases [] = {
	-0.05182104185223579,  0.15709695219993591, -0.10662840306758881, -0.05295522138476372, 
	-0.13145324587821960, -0.06572533398866653,  0.19839183986186981,  0.51149386167526245, 
	-0.01803824119269848, -0.18122200667858124,  0.24397002160549164,  0.45849058032035828, 
	 0.11062581092119217, -0.01049898657947779, -0.05897678434848785,  0.16797819733619690, 
	 0.18376852571964264, -0.06875702738761902,  0.19466757774353027,  0.13462920486927032, 
	-0.00115583732258528,  0.14558357000350952,  0.09359116852283478,  0.27409771084785461, 
	-0.10491338372230530,  0.06395152956247330,  0.07952561974525452,  0.03272457420825958, 
	 0.21266289055347443,  0.25639373064041138,  0.29925680160522461,  0.22484688460826874, 
	-0.09075058251619339,  0.23385113477706909,  0.03847375512123108};
const uint32_t n_biases = 35;
