#include "network.h"
const uint32_t n_inputs = 4;
const uint32_t n_outputs = 3;
uint32_t n_per_layer [] = {16, 3};
const uint32_t n_layers = 2;
float weights [] = {
	-0.51036608219146729, -0.27591425180435181, -0.31075754761695862, -0.57471758127212524, 
	-0.31684836745262146, -0.10624668002128601, -0.61254853010177612, -0.58211362361907959, 
	 0.38078507781028748,  0.29900857806205750, -0.29868996143341064, -0.32127928733825684, 
	-0.47008335590362549, -0.10765728354454041, -0.16687753796577454, -0.09493850171566010, 
	-0.12281581014394760, -0.16279797255992889, -0.27387672662734985, -0.19507454335689545, 
	 0.01596315205097198, -0.05070634931325912, -0.33869260549545288, -0.12361199408769608, 
	 0.16784821450710297,  0.15791171789169312, -0.33469396829605103, -0.29617023468017578, 
	-0.42548945546150208,  0.74458199739456177, -0.05064383521676064, -0.56532251834869385, 
	 0.23955495655536652, -0.13207997381687164,  0.01937849447131157,  0.05422474071383476, 
	-0.20694474875926971,  0.73415422439575195, -0.77366214990615845, -0.65409791469573975, 
	 0.13635978102684021, -0.27054741978645325,  1.15315783023834229,  0.55193436145782471, 
	-0.05659791454672813,  0.58723777532577515,  0.16395862400531769,  0.37566077709197998, 
	 0.06459070742130280,  0.10571307688951492, -0.52809214591979980, -0.47961595654487610, 
	 0.37778064608573914,  0.44584432244300842,  0.67987304925918579,  0.39740270376205444, 
	-0.43713727593421936, -0.59377568960189819, -0.16355246305465698, -0.08856612443923950, 
	 0.87311011552810669, -0.40303361415863037,  0.36156001687049866,  0.57813000679016113, 
	-0.09792625904083252,  0.21942925453186035, -0.10071212053298950,  0.06783321499824524, 
	 0.17990890145301819, -0.22490870952606201,  0.07740476727485657,  0.33492389321327209, 
	 0.26923403143882751,  0.62727868556976318, -0.84903389215469360,  0.13059546053409576, 
	 0.72281533479690552, -0.77329975366592407, -0.08992304652929306, -0.39700755476951599, 
	-0.17767307162284851, -0.00534662604331970, -0.30061021447181702, -0.10803988575935364, 
	 0.16806855797767639, -0.04270938038825989,  0.23186632990837097,  0.01471563335508108, 
	 0.12071112543344498, -1.05266547203063965,  0.39579761028289795, -0.12781551480293274, 
	 0.37237483263015747, -0.69530516862869263,  0.13907764852046967,  0.34820604324340820, 
	-0.05565211176872253,  0.09141471982002258, -0.09363057464361191, -0.24331492185592651, 
	 0.17202338576316833, -0.24029758572578430, -0.52876728773117065, -0.73695027828216553, 
	 0.13280729949474335, -0.60463505983352661,  0.36831009387969971,  0.18447236716747284, 
	-0.82481408119201660,  0.51412016153335571,  0.06032172590494156,  0.35330083966255188};
const uint32_t n_weights = 112;
float biases [] = {
	-0.22359888255596161,  0.00340893235988915, -0.40600484609603882, -0.26828622817993164, 
	-0.41697451472282410, -0.30212002992630005,  0.44046372175216675,  0.58219569921493530, 
	 0.54552167654037476,  0.53529638051986694,  0.18139193952083588,  0.05241943523287773, 
	 0.95319467782974243, -0.58016020059585571,  0.11744879186153412,  0.30415806174278259, 
	 0.11748164147138596,  0.15677966177463531,  0.17973028123378754};
const uint32_t n_biases = 19;
